<?xml version="1.0"?>
<opencv_storage>
<cascade>
  <stageType>BOOST</stageType>
  <featureType>LBP</featureType>
  <height>24</height>
  <width>24</width>
  <stageParams>
    <boostType>GAB</boostType>
    <minHitRate>9.9500000476837158e-01</minHitRate>
    <maxFalseAlarm>5.0000000000000000e-01</maxFalseAlarm>
    <weightTrimRate>9.4999999999999996e-01</weightTrimRate>
    <maxDepth>1</maxDepth>
    <maxWeakCount>100</maxWeakCount></stageParams>
  <featureParams>
    <maxCatCount>256</maxCatCount>
    <featSize>1</featSize></featureParams>
  <stageNum>16</stageNum>
  <stages>
    <!-- stage 0 -->
    <_>
      <maxWeakCount>2</maxWeakCount>
      <stageThreshold>-5.2364725619554520e-02</stageThreshold>
      <weakClassifiers>
        <_>
          <internalNodes>
            0 -1 0 -773859154 268959897 285278882 361713675 -2004767761
            446234847 -1299658241 1001380847</internalNodes>
          <leafValues>
            -9.3603414297103882e-01 9.1076624393463135e-01</leafValues></_>
        <_>
          <internalNodes>
            0 -1 10 24 285212688 201326685 1427640581 142606523
            -1473773432 142641343 427851929</internalNodes>
          <leafValues>
            -9.6313095092773438e-01 8.9116835594177246e-01</leafValues></_></weakClassifiers></_>
    <!-- stage 1 -->
    <_>
      <maxWeakCount>2</maxWeakCount>
      <stageThreshold>1.5646858140826225e-02</stageThreshold>
      <weakClassifiers>
        <_>
          <internalNodes>
            0 -1 18 -696254465 -1207959553 -134234113 -134348801
            -1074266113 1979711487 1744748463 12058623</internalNodes>
          <leafValues>
            -8.9484751224517822e-01 9.0336751937866211e-01</leafValues></_>
        <_>
          <internalNodes>
            0 -1 17 1608408 -787464191 1090568413 -247914239 688916666
            -1178566528 -2012610625 -1954348066</internalNodes>
          <leafValues>
            -8.7380611896514893e-01 9.1049438714981079e-01</leafValues></_></weakClassifiers></_>
    <!-- stage 2 -->
    <_>
      <maxWeakCount>2</maxWeakCount>
      <stageThreshold>-3.8242481648921967e-02</stageThreshold>
      <weakClassifiers>
        <_>
          <internalNodes>
            0 -1 23 1053432 286261376 67033 486866969 138481851
            -1199046528 134744319 234881450</internalNodes>
          <leafValues>
            -9.5365005731582642e-01 8.5306507349014282e-01</leafValues></_>
        <_>
          <internalNodes>
            0 -1 25 268439773 823197711 328095 525533597 939557311
            -1182236542 134228223 -1081278326</internalNodes>
          <leafValues>
            -8.4982478618621826e-01 9.1540759801864624e-01</leafValues></_></weakClassifiers></_>
    <!-- stage 3 -->
    <_>
      <maxWeakCount>2</maxWeakCount>
      <stageThreshold>-7.2502880357205868e-03</stageThreshold>
      <weakClassifiers>
        <_>
          <internalNodes>
            0 -1 28 -286294014 131073 -2113863165 -2147286774 1074462786
            0 1073938433 -614737361</internalNodes>
          <leafValues>
            -8.8324326276779175e-01 8.7566262483596802e-01</leafValues></_>
        <_>
          <internalNodes>
            0 -1 5 -1076098884 1069497918 -1 1073741823 -1 -33554433
            -1090765633 -1091617217</internalNodes>
          <leafValues>
            -8.5452181100845337e-01 8.7599295377731323e-01</leafValues></_></weakClassifiers></_>
    <!-- stage 4 -->
    <_>
      <maxWeakCount>2</maxWeakCount>
      <stageThreshold>9.9760293960571289e-03</stageThreshold>
      <weakClassifiers>
        <_>
          <internalNodes>
            0 -1 6 481886196 2130247668 -1 536870900 -21037058 -17498124
            -73729 -320012448</internalNodes>
          <leafValues>
            -8.6002123355865479e-01 8.8040834665298462e-01</leafValues></_>
        <_>
          <internalNodes>
            0 -1 27 -622336342 -1027366336 1073807362 -900218839
            -2136489949 1342275586 -1010069465 -336612369</internalNodes>
          <leafValues>
            -8.5495239496231079e-01 8.6999726295471191e-01</leafValues></_></weakClassifiers></_>
    <!-- stage 5 -->
    <_>
      <maxWeakCount>2</maxWeakCount>
      <stageThreshold>-3.7135247141122818e-02</stageThreshold>
      <weakClassifiers>
        <_>
          <internalNodes>
            0 -1 15 -204479862 -2147303340 134250504 -2146779089
            -225509359 1082130579 -930488319 -152572929</internalNodes>
          <leafValues>
            -8.7598645687103271e-01 8.4098440408706665e-01</leafValues></_>
        <_>
          <internalNodes>
            0 -1 1 270012604 960561172 28840447 1570705621 -131406914
            -91520885 -2004342597 -1430574962</internalNodes>
          <leafValues>
            -8.5476410388946533e-01 8.3885121345520020e-01</leafValues></_></weakClassifiers></_>
    <!-- stage 6 -->
    <_>
      <maxWeakCount>2</maxWeakCount>
      <stageThreshold>2.4077378213405609e-02</stageThreshold>
      <weakClassifiers>
        <_>
          <internalNodes>
            0 -1 24 -50528788 -41976068 2147483135 -32771 -65538 -65538
            -58916884 -2004943634</internalNodes>
          <leafValues>
            -8.3795309066772461e-01 8.6614936590194702e-01</leafValues></_>
        <_>
          <internalNodes>
            0 -1 31 294912252 -116289519 -1827565411 -551857831
            -259350339 -662011774 -1451189765 -7395124</internalNodes>
          <leafValues>
            -8.3519929647445679e-01 8.6203044652938843e-01</leafValues></_></weakClassifiers></_>
    <!-- stage 7 -->
    <_>
      <maxWeakCount>2</maxWeakCount>
      <stageThreshold>-1.9491562619805336e-02</stageThreshold>
      <weakClassifiers>
        <_>
          <internalNodes>
            0 -1 29 -236985458 -1073381312 8396800 -465452990
            -1039932894 1115914240 -515669502 -469767325</internalNodes>
          <leafValues>
            -8.6426299810409546e-01 8.8235294818878174e-01</leafValues></_>
        <_>
          <internalNodes>
            0 -1 14 -238558513 -2147278845 1073872906 231425 1342373891
            1073807360 1074463243 1431030279</internalNodes>
          <leafValues>
            -8.8666892051696777e-01 8.4477144479751587e-01</leafValues></_></weakClassifiers></_>
    <!-- stage 8 -->
    <_>
      <maxWeakCount>2</maxWeakCount>
      <stageThreshold>-2.3300141096115112e-02</stageThreshold>
      <weakClassifiers>
        <_>
          <internalNodes>
            0 -1 26 16782064 -682012556 268636381 521207945 134240415
            -611811199 436240895 521407396</internalNodes>
          <leafValues>
            -8.5503965616226196e-01 8.2900333404541016e-01</leafValues></_>
        <_>
          <internalNodes>
            0 -1 13 -221975666 -124526397 1073741834 1879548883
            -1056194314 270466 -2113764694 -387978593</internalNodes>
          <leafValues>
            -8.1847137212753296e-01 8.3173948526382446e-01</leafValues></_></weakClassifiers></_>
    <!-- stage 9 -->
    <_>
      <maxWeakCount>2</maxWeakCount>
      <stageThreshold>3.7449384108185768e-03</stageThreshold>
      <weakClassifiers>
        <_>
          <internalNodes>
            0 -1 21 1275299624 -2146369381 29360138 -1931640803
            -930428773 -74841944 -2104951393 -1144274805</internalNodes>
          <leafValues>
            -8.9749431610107422e-01 8.4260129928588867e-01</leafValues></_>
        <_>
          <internalNodes>
            0 -1 12 605563476 488455679 -1107476739 1040171007
            1069531135 -4194322 489529087 -1079230748</internalNodes>
          <leafValues>
            -7.6702868938446045e-01 9.0123921632766724e-01</leafValues></_></weakClassifiers></_>
    <!-- stage 10 -->
    <_>
      <maxWeakCount>2</maxWeakCount>
      <stageThreshold>-7.1969948709011078e-02</stageThreshold>
      <weakClassifiers>
        <_>
          <internalNodes>
            0 -1 19 1343279452 1542455836 286261661 -1179532860
            -1610610007 -124223472 671615215 -927432704</internalNodes>
          <leafValues>
            -8.6798679828643799e-01 8.5557150840759277e-01</leafValues></_>
        <_>
          <internalNodes>
            0 -1 16 -784076594 -1005891581 196608 -1065218045 -401965055
            1114114 -1056206816 -162004994</internalNodes>
          <leafValues>
            -9.1906327009201050e-01 7.9601687192916870e-01</leafValues></_></weakClassifiers></_>
    <!-- stage 11 -->
    <_>
      <maxWeakCount>2</maxWeakCount>
      <stageThreshold>-1.0833134502172470e-01</stageThreshold>
      <weakClassifiers>
        <_>
          <internalNodes>
            0 -1 8 1888547648 -2101194494 33656970 -1006616056
            -1002331150 914423808 -1476359382 -353443090</internalNodes>
          <leafValues>
            -9.6420049667358398e-01 8.3626270294189453e-01</leafValues></_>
        <_>
          <internalNodes>
            0 -1 3 -669985704 -586121008 541147 1394151483 -796360565
            -939523968 -1333247864 -2000107510</internalNodes>
          <leafValues>
            -8.3206278085708618e-01 8.5586911439895630e-01</leafValues></_></weakClassifiers></_>
    <!-- stage 12 -->
    <_>
      <maxWeakCount>2</maxWeakCount>
      <stageThreshold>-8.0565243959426880e-02</stageThreshold>
      <weakClassifiers>
        <_>
          <internalNodes>
            0 -1 7 -1589608312 8556545 -2013233084 16912519 -1979678019
            -1442807672 -2134867957 -1107586901</internalNodes>
          <leafValues>
            -9.3657505512237549e-01 9.1820836067199707e-01</leafValues></_>
        <_>
          <internalNodes>
            0 -1 22 268436700 420483153 1090590165 486866962 136
            -1744699344 -2004352884 -1903230834</internalNodes>
          <leafValues>
            -9.0931731462478638e-01 8.5600978136062622e-01</leafValues></_></weakClassifiers></_>
    <!-- stage 13 -->
    <_>
      <maxWeakCount>2</maxWeakCount>
      <stageThreshold>-7.5835675001144409e-02</stageThreshold>
      <weakClassifiers>
        <_>
          <internalNodes>
            0 -1 2 403702225 286855169 16842833 421073936 8521962
            -1207926784 139200751 137953280</internalNodes>
          <leafValues>
            -9.0888381004333496e-01 8.4731388092041016e-01</leafValues></_>
        <_>
          <internalNodes>
            0 -1 30 -192417590 -1069449216 -2147352440 -1069318125
            -805076927 16941058 -1879013374 -208961397</internalNodes>
          <leafValues>
            -8.4554761648178101e-01 8.3304816484451294e-01</leafValues></_></weakClassifiers></_>
    <!-- stage 14 -->
    <_>
      <maxWeakCount>2</maxWeakCount>
      <stageThreshold>-4.2140457779169083e-02</stageThreshold>
      <weakClassifiers>
        <_>
          <internalNodes>
            0 -1 9 -804255700 -1862205440 -1877995429 320143385
            -2004841287 -1434419070 939659433 -1114957814</internalNodes>
          <leafValues>
            -8.5981309413909912e-01 8.0970150232315063e-01</leafValues></_>
        <_>
          <internalNodes>
            0 -1 4 1342230780 -183500603 16849183 1025310861 -1197436710
            -124780534 -1063778097 -291356384</internalNodes>
          <leafValues>
            -8.0037754774093628e-01 8.1767261028289795e-01</leafValues></_></weakClassifiers></_>
    <!-- stage 15 -->
    <_>
      <maxWeakCount>2</maxWeakCount>
      <stageThreshold>-3.5404637455940247e-02</stageThreshold>
      <weakClassifiers>
        <_>
          <internalNodes>
            0 -1 20 -783055941 -1476083213 -2130443253 -2130411483
            -2147482296 -1602223992 -939506597 -7617845</internalNodes>
          <leafValues>
            -8.5585588216781616e-01 8.3333331346511841e-01</leafValues></_>
        <_>
          <internalNodes>
            0 -1 11 -477891922 8946322 131072 -2012905434 -1035894502
            131073 1124290826 -266362709</internalNodes>
          <leafValues>
            -8.3194899559020996e-01 8.2045120000839233e-01</leafValues></_></weakClassifiers></_></stages>
  <features>
    <_>
      <rect>
        0 0 3 3</rect></_>
    <_>
      <rect>
        0 6 3 1</rect></_>
    <_>
      <rect>
        0 6 5 1</rect></_>
    <_>
      <rect>
        0 7 3 1</rect></_>
    <_>
      <rect>
        0 7 5 1</rect></_>
    <_>
      <rect>
        0 15 3 1</rect></_>
    <_>
      <rect>
        0 16 5 1</rect></_>
    <_>
      <rect>
        1 0 3 3</rect></_>
    <_>
      <rect>
        2 4 3 4</rect></_>
    <_>
      <rect>
        3 15 2 1</rect></_>
    <_>
      <rect>
        3 15 7 1</rect></_>
    <_>
      <rect>
        5 1 1 4</rect></_>
    <_>
      <rect>
        5 6 6 1</rect></_>
    <_>
      <rect>
        5 14 1 3</rect></_>
    <_>
      <rect>
        6 0 1 5</rect></_>
    <_>
      <rect>
        6 9 1 3</rect></_>
    <_>
      <rect>
        6 18 1 2</rect></_>
    <_>
      <rect>
        7 6 2 1</rect></_>
    <_>
      <rect>
        8 7 3 3</rect></_>
    <_>
      <rect>
        8 16 5 1</rect></_>
    <_>
      <rect>
        9 9 5 3</rect></_>
    <_>
      <rect>
        9 10 4 2</rect></_>
    <_>
      <rect>
        9 15 3 1</rect></_>
    <_>
      <rect>
        10 6 4 1</rect></_>
    <_>
      <rect>
        10 7 3 1</rect></_>
    <_>
      <rect>
        10 15 4 1</rect></_>
    <_>
      <rect>
        12 6 4 1</rect></_>
    <_>
      <rect>
        15 0 1 2</rect></_>
    <_>
      <rect>
        15 6 1 6</rect></_>
    <_>
      <rect>
        15 8 1 2</rect></_>
    <_>
      <rect>
        15 21 1 1</rect></_>
    <_>
      <rect>
        18 15 2 1</rect></_></features></cascade>
</opencv_storage>
